<?xml version="1.0"?>
<opencv_storage>
<cascade>
  <stageType>BOOST</stageType>
  <featureType>HAAR</featureType>
  <height>50</height>
  <width>50</width>
  <stageParams>
    <boostType>DAB</boostType>
    <minHitRate>9.4999998807907104e-01</minHitRate>
    <maxFalseAlarm>2.0000000298023224e-01</maxFalseAlarm>
    <weightTrimRate>9.4999998807907104e-01</weightTrimRate>
    <maxDepth>1</maxDepth>
    <maxWeakCount>3</maxWeakCount></stageParams>
  <featureParams>
    <maxCatCount>0</maxCatCount>
    <featSize>1</featSize>
    <mode>BASIC</mode></featureParams>
  <stageNum>6</stageNum>
  <stages>
    <!-- stage 0 -->
    <_>
      <maxWeakCount>1</maxWeakCount>
      <stageThreshold>3.6375861167907715e+00</stageThreshold>
      <weakClassifiers>
        <_>
          <internalNodes>
            0 -1 6 -7.2099827229976654e-03</internalNodes>
          <leafValues>
            3.6375861167907715e+00 -3.6375861167907715e+00</leafValues></_></weakClassifiers></_>
    <!-- stage 1 -->
    <_>
      <maxWeakCount>2</maxWeakCount>
      <stageThreshold>-2.6668246835470200e-02</stageThreshold>
      <weakClassifiers>
        <_>
          <internalNodes>
            0 -1 8 -1.9302435219287872e-02</internalNodes>
          <leafValues>
            3.6375861167907715e+00 -3.6375861167907715e+00</leafValues></_>
        <_>
          <internalNodes>
            0 -1 0 -1.3049301691353321e-02</internalNodes>
          <leafValues>
            3.6109178066253662e+00 -3.6109178066253662e+00</leafValues></_></weakClassifiers></_>
    <!-- stage 2 -->
    <_>
      <maxWeakCount>2</maxWeakCount>
      <stageThreshold>-6.6574817895889282e-01</stageThreshold>
      <weakClassifiers>
        <_>
          <internalNodes>
            0 -1 2 4.6138286590576172e-02</internalNodes>
          <leafValues>
            -2.9177706241607666e+00 2.9177706241607666e+00</leafValues></_>
        <_>
          <internalNodes>
            0 -1 3 8.1225305795669556e-02</internalNodes>
          <leafValues>
            -3.5835189819335938e+00 3.5835189819335938e+00</leafValues></_></weakClassifiers></_>
    <!-- stage 3 -->
    <_>
      <maxWeakCount>2</maxWeakCount>
      <stageThreshold>-6.6574817895889282e-01</stageThreshold>
      <weakClassifiers>
        <_>
          <internalNodes>
            0 -1 4 -1.1467516422271729e-01</internalNodes>
          <leafValues>
            2.9177706241607666e+00 -2.9177706241607666e+00</leafValues></_>
        <_>
          <internalNodes>
            0 -1 9 -4.0517332963645458e-03</internalNodes>
          <leafValues>
            3.5835189819335938e+00 -3.5835189819335938e+00</leafValues></_></weakClassifiers></_>
    <!-- stage 4 -->
    <_>
      <maxWeakCount>2</maxWeakCount>
      <stageThreshold>-6.5058755874633789e-01</stageThreshold>
      <weakClassifiers>
        <_>
          <internalNodes>
            0 -1 5 -4.7635314986109734e-03</internalNodes>
          <leafValues>
            2.4849066734313965e+00 -2.4849066734313965e+00</leafValues></_>
        <_>
          <internalNodes>
            0 -1 7 3.5134097561240196e-03</internalNodes>
          <leafValues>
            -3.1354942321777344e+00 3.1354942321777344e+00</leafValues></_></weakClassifiers></_>
    <!-- stage 5 -->
    <_>
      <maxWeakCount>2</maxWeakCount>
      <stageThreshold>-5.5569849908351898e-02</stageThreshold>
      <weakClassifiers>
        <_>
          <internalNodes>
            0 -1 10 4.0930345654487610e-02</internalNodes>
          <leafValues>
            -2.9177706241607666e+00 2.9177706241607666e+00</leafValues></_>
        <_>
          <internalNodes>
            0 -1 1 -2.7176350355148315e-02</internalNodes>
          <leafValues>
            2.8622009754180908e+00 -2.8622009754180908e+00</leafValues></_></weakClassifiers></_></stages>
  <features>
    <_>
      <rects>
        <_>
          0 21 41 10 -1.</_>
        <_>
          0 26 41 5 2.</_></rects>
      <tilted>0</tilted></_>
    <_>
      <rects>
        <_>
          0 25 10 25 -1.</_>
        <_>
          5 25 5 25 2.</_></rects>
      <tilted>0</tilted></_>
    <_>
      <rects>
        <_>
          0 30 18 20 -1.</_>
        <_>
          0 40 18 10 2.</_></rects>
      <tilted>0</tilted></_>
    <_>
      <rects>
        <_>
          1 36 45 14 -1.</_>
        <_>
          1 43 45 7 2.</_></rects>
      <tilted>0</tilted></_>
    <_>
      <rects>
        <_>
          2 2 42 19 -1.</_>
        <_>
          16 2 14 19 3.</_></rects>
      <tilted>0</tilted></_>
    <_>
      <rects>
        <_>
          2 20 10 3 -1.</_>
        <_>
          7 20 5 3 2.</_></rects>
      <tilted>0</tilted></_>
    <_>
      <rects>
        <_>
          18 0 3 18 -1.</_>
        <_>
          18 9 3 9 2.</_></rects>
      <tilted>0</tilted></_>
    <_>
      <rects>
        <_>
          28 23 12 3 -1.</_>
        <_>
          32 23 4 3 3.</_></rects>
      <tilted>0</tilted></_>
    <_>
      <rects>
        <_>
          28 23 21 18 -1.</_>
        <_>
          35 23 7 18 3.</_></rects>
      <tilted>0</tilted></_>
    <_>
      <rects>
        <_>
          37 8 3 14 -1.</_>
        <_>
          37 15 3 7 2.</_></rects>
      <tilted>0</tilted></_>
    <_>
      <rects>
        <_>
          38 29 12 16 -1.</_>
        <_>
          44 29 6 16 2.</_></rects>
      <tilted>0</tilted></_></features></cascade>
</opencv_storage>
